<?xml version="1.0"?>
<opencv_storage>
<cascade>
  <stageType>BOOST</stageType>
  <featureType>HAAR</featureType>
  <height>64</height>
  <width>64</width>
  <stageParams>
    <boostType>GAB</boostType>
    <minHitRate>9.9500000476837158e-01</minHitRate>
    <maxFalseAlarm>7.5000000000000000e-01</maxFalseAlarm>
    <weightTrimRate>9.4999999999999996e-01</weightTrimRate>
    <maxDepth>1</maxDepth>
    <maxWeakCount>100</maxWeakCount></stageParams>
  <featureParams>
    <maxCatCount>0</maxCatCount>
    <featSize>1</featSize>
    <mode>BASIC</mode></featureParams>
  <stageNum>1</stageNum>
  <stages>
    <!-- stage 0 -->
    <_>
      <maxWeakCount>3</maxWeakCount>
      <stageThreshold>-1.5088994503021240e+00</stageThreshold>
      <weakClassifiers>
        <_>
          <internalNodes>
            0 -1 2 2.1455705165863037e-02</internalNodes>
          <leafValues>
            -9.7154474258422852e-01 3.9130434393882751e-01</leafValues></_>
        <_>
          <internalNodes>
            0 -1 0 3.4659552574157715e-01</internalNodes>
          <leafValues>
            -8.8525503873825073e-01 6.7252546548843384e-01</leafValues></_>
        <_>
          <internalNodes>
            0 -1 1 -1.1581487022340298e-02</internalNodes>
          <leafValues>
            3.4790036082267761e-01 -9.2214977741241455e-01</leafValues></_></weakClassifiers></_></stages>
  <features>
    <_>
      <rects>
        <_>
          0 0 39 60 -1.</_>
        <_>
          0 20 39 20 3.</_></rects>
      <tilted>0</tilted></_>
    <_>
      <rects>
        <_>
          7 49 45 15 -1.</_>
        <_>
          7 54 45 5 3.</_></rects>
      <tilted>0</tilted></_>
    <_>
      <rects>
        <_>
          28 58 36 2 -1.</_>
        <_>
          46 58 18 2 2.</_></rects>
      <tilted>0</tilted></_></features></cascade>
</opencv_storage>
