<?xml version="1.0"?>
<opencv_storage>
<cascade>
  <stageType>BOOST</stageType>
  <featureType>HAAR</featureType>
  <height>50</height>
  <width>50</width>
  <stageParams>
    <boostType>GAB</boostType>
    <minHitRate>9.9500000476837158e-01</minHitRate>
    <maxFalseAlarm>7.5000000000000000e-01</maxFalseAlarm>
    <weightTrimRate>9.4999999999999996e-01</weightTrimRate>
    <maxDepth>1</maxDepth>
    <maxWeakCount>100</maxWeakCount></stageParams>
  <featureParams>
    <maxCatCount>0</maxCatCount>
    <featSize>1</featSize>
    <mode>BASIC</mode></featureParams>
  <stageNum>1</stageNum>
  <stages>
    <!-- stage 0 -->
    <_>
      <maxWeakCount>2</maxWeakCount>
      <stageThreshold>-3.3370229601860046e-01</stageThreshold>
      <weakClassifiers>
        <_>
          <internalNodes>
            0 -1 1 2.0709624886512756e-01</internalNodes>
          <leafValues>
            -7.7163904905319214e-01 7.5000000000000000e-01</leafValues></_>
        <_>
          <internalNodes>
            0 -1 0 -4.2611733078956604e-04</internalNodes>
          <leafValues>
            4.3793675303459167e-01 -9.6595495939254761e-01</leafValues></_></weakClassifiers></_></stages>
  <features>
    <_>
      <rects>
        <_>
          22 20 1 16 -1.</_>
        <_>
          22 28 1 8 2.</_></rects>
      <tilted>0</tilted></_>
    <_>
      <rects>
        <_>
          28 6 22 41 -1.</_>
        <_>
          39 6 11 41 2.</_></rects>
      <tilted>0</tilted></_></features></cascade>
</opencv_storage>
